digraph Tree {
node [shape=box, fontname="helvetica"] ;
edge [fontname="helvetica"] ;
0 [label="X[1] <= 0.5\ngini = 0.473\nsamples = 891\nvalue = [549, 342]"] ;
1 [label="X[0] <= 2.5\ngini = 0.383\nsamples = 314\nvalue = [81, 233]"] ;
0 -> 1 [labeldistance=2.5, labelangle=45, headlabel="True"] ;
2 [label="X[2] <= 28.856\ngini = 0.1\nsamples = 170\nvalue = [9, 161]"] ;
1 -> 2 ;
3 [label="X[2] <= 28.231\ngini = 0.18\nsamples = 70\nvalue = [7, 63]"] ;
2 -> 3 ;
4 [label="X[2] <= 26.125\ngini = 0.159\nsamples = 69\nvalue = [6, 63]"] ;
3 -> 4 ;
5 [label="X[3] <= 1.5\ngini = 0.183\nsamples = 59\nvalue = [6, 53]"] ;
4 -> 5 ;
6 [label="gini = 0.0\nsamples = 6\nvalue = [0, 6]"] ;
5 -> 6 ;
7 [label="X[0] <= 1.5\ngini = 0.201\nsamples = 53\nvalue = [6, 47]"] ;
5 -> 7 ;
8 [label="gini = 0.0\nsamples = 2\nvalue = [0, 2]"] ;
7 -> 8 ;
9 [label="X[2] <= 20.25\ngini = 0.208\nsamples = 51\nvalue = [6, 45]"] ;
7 -> 9 ;
10 [label="X[2] <= 13.25\ngini = 0.18\nsamples = 30\nvalue = [3, 27]"] ;
9 -> 10 ;
11 [label="X[2] <= 12.825\ngini = 0.227\nsamples = 23\nvalue = [3, 20]"] ;
10 -> 11 ;
12 [label="X[2] <= 11.575\ngini = 0.198\nsamples = 9\nvalue = [1, 8]"] ;
11 -> 12 ;
13 [label="gini = 0.219\nsamples = 8\nvalue = [1, 7]"] ;
12 -> 13 ;
14 [label="gini = 0.0\nsamples = 1\nvalue = [0, 1]"] ;
12 -> 14 ;
15 [label="gini = 0.245\nsamples = 14\nvalue = [2, 12]"] ;
11 -> 15 ;
16 [label="gini = 0.0\nsamples = 7\nvalue = [0, 7]"] ;
10 -> 16 ;
17 [label="X[2] <= 22.0\ngini = 0.245\nsamples = 21\nvalue = [3, 18]"] ;
9 -> 17 ;
18 [label="gini = 0.444\nsamples = 3\nvalue = [1, 2]"] ;
17 -> 18 ;
19 [label="X[2] <= 24.5\ngini = 0.198\nsamples = 18\nvalue = [2, 16]"] ;
17 -> 19 ;
20 [label="gini = 0.0\nsamples = 4\nvalue = [0, 4]"] ;
19 -> 20 ;
21 [label="gini = 0.245\nsamples = 14\nvalue = [2, 12]"] ;
19 -> 21 ;
22 [label="gini = 0.0\nsamples = 10\nvalue = [0, 10]"] ;
4 -> 22 ;
23 [label="gini = 0.0\nsamples = 1\nvalue = [1, 0]"] ;
3 -> 23 ;
24 [label="X[2] <= 149.035\ngini = 0.039\nsamples = 100\nvalue = [2, 98]"] ;
2 -> 24 ;
25 [label="gini = 0.0\nsamples = 81\nvalue = [0, 81]"] ;
24 -> 25 ;
26 [label="X[2] <= 152.506\ngini = 0.188\nsamples = 19\nvalue = [2, 17]"] ;
24 -> 26 ;
27 [label="gini = 0.444\nsamples = 3\nvalue = [2, 1]"] ;
26 -> 27 ;
28 [label="gini = 0.0\nsamples = 16\nvalue = [0, 16]"] ;
26 -> 28 ;
29 [label="X[2] <= 23.35\ngini = 0.5\nsamples = 144\nvalue = [72, 72]"] ;
1 -> 29 ;
30 [label="X[3] <= 1.5\ngini = 0.484\nsamples = 117\nvalue = [48, 69]"] ;
29 -> 30 ;
31 [label="X[2] <= 15.621\ngini = 0.417\nsamples = 54\nvalue = [16, 38]"] ;
30 -> 31 ;
32 [label="X[2] <= 13.935\ngini = 0.454\nsamples = 46\nvalue = [16, 30]"] ;
31 -> 32 ;
33 [label="X[2] <= 6.987\ngini = 0.342\nsamples = 32\nvalue = [7, 25]"] ;
32 -> 33 ;
34 [label="gini = 0.0\nsamples = 1\nvalue = [1, 0]"] ;
33 -> 34 ;
35 [label="X[3] <= 0.5\ngini = 0.312\nsamples = 31\nvalue = [6, 25]"] ;
33 -> 35 ;
36 [label="gini = 0.0\nsamples = 6\nvalue = [0, 6]"] ;
35 -> 36 ;
37 [label="X[2] <= 7.681\ngini = 0.365\nsamples = 25\nvalue = [6, 19]"] ;
35 -> 37 ;
38 [label="gini = 0.0\nsamples = 1\nvalue = [1, 0]"] ;
37 -> 38 ;
39 [label="X[2] <= 8.083\ngini = 0.33\nsamples = 24\nvalue = [5, 19]"] ;
37 -> 39 ;
40 [label="X[2] <= 7.769\ngini = 0.287\nsamples = 23\nvalue = [4, 19]"] ;
39 -> 40 ;
41 [label="X[2] <= 7.744\ngini = 0.375\nsamples = 16\nvalue = [4, 12]"] ;
40 -> 41 ;
42 [label="gini = 0.0\nsamples = 3\nvalue = [0, 3]"] ;
41 -> 42 ;
43 [label="gini = 0.426\nsamples = 13\nvalue = [4, 9]"] ;
41 -> 43 ;
44 [label="gini = 0.0\nsamples = 7\nvalue = [0, 7]"] ;
40 -> 44 ;
45 [label="gini = 0.0\nsamples = 1\nvalue = [1, 0]"] ;
39 -> 45 ;
46 [label="X[2] <= 15.373\ngini = 0.459\nsamples = 14\nvalue = [9, 5]"] ;
32 -> 46 ;
47 [label="X[2] <= 14.852\ngini = 0.32\nsamples = 10\nvalue = [8, 2]"] ;
46 -> 47 ;
48 [label="X[2] <= 14.456\ngini = 0.245\nsamples = 7\nvalue = [6, 1]"] ;
47 -> 48 ;
49 [label="gini = 0.32\nsamples = 5\nvalue = [4, 1]"] ;
48 -> 49 ;
50 [label="gini = 0.0\nsamples = 2\nvalue = [2, 0]"] ;
48 -> 50 ;
51 [label="gini = 0.444\nsamples = 3\nvalue = [2, 1]"] ;
47 -> 51 ;
52 [label="gini = 0.375\nsamples = 4\nvalue = [1, 3]"] ;
46 -> 52 ;
53 [label="gini = 0.0\nsamples = 8\nvalue = [0, 8]"] ;
31 -> 53 ;
54 [label="X[2] <= 10.825\ngini = 0.5\nsamples = 63\nvalue = [32, 31]"] ;
30 -> 54 ;
55 [label="X[2] <= 7.988\ngini = 0.482\nsamples = 37\nvalue = [22, 15]"] ;
54 -> 55 ;
56 [label="X[2] <= 7.523\ngini = 0.495\nsamples = 20\nvalue = [9, 11]"] ;
55 -> 56 ;
57 [label="gini = 0.0\nsamples = 2\nvalue = [0, 2]"] ;
56 -> 57 ;
58 [label="X[2] <= 7.7\ngini = 0.5\nsamples = 18\nvalue = [9, 9]"] ;
56 -> 58 ;
59 [label="X[2] <= 7.6\ngini = 0.444\nsamples = 3\nvalue = [1, 2]"] ;
58 -> 59 ;
60 [label="gini = 0.5\nsamples = 2\nvalue = [1, 1]"] ;
59 -> 60 ;
61 [label="gini = 0.0\nsamples = 1\nvalue = [0, 1]"] ;
59 -> 61 ;
62 [label="X[2] <= 7.91\ngini = 0.498\nsamples = 15\nvalue = [8, 7]"] ;
58 -> 62 ;
63 [label="X[2] <= 7.875\ngini = 0.48\nsamples = 10\nvalue = [6, 4]"] ;
62 -> 63 ;
64 [label="X[2] <= 7.815\ngini = 0.494\nsamples = 9\nvalue = [5, 4]"] ;
63 -> 64 ;
65 [label="X[2] <= 7.763\ngini = 0.48\nsamples = 5\nvalue = [3, 2]"] ;
64 -> 65 ;
66 [label="gini = 0.5\nsamples = 2\nvalue = [1, 1]"] ;
65 -> 66 ;
67 [label="gini = 0.444\nsamples = 3\nvalue = [2, 1]"] ;
65 -> 67 ;
68 [label="gini = 0.5\nsamples = 4\nvalue = [2, 2]"] ;
64 -> 68 ;
69 [label="gini = 0.0\nsamples = 1\nvalue = [1, 0]"] ;
63 -> 69 ;
70 [label="gini = 0.48\nsamples = 5\nvalue = [2, 3]"] ;
62 -> 70 ;
71 [label="X[2] <= 8.673\ngini = 0.36\nsamples = 17\nvalue = [13, 4]"] ;
55 -> 71 ;
72 [label="gini = 0.0\nsamples = 4\nvalue = [4, 0]"] ;
71 -> 72 ;
73 [label="X[2] <= 8.767\ngini = 0.426\nsamples = 13\nvalue = [9, 4]"] ;
71 -> 73 ;
74 [label="gini = 0.0\nsamples = 1\nvalue = [0, 1]"] ;
73 -> 74 ;
75 [label="X[2] <= 10.152\ngini = 0.375\nsamples = 12\nvalue = [9, 3]"] ;
73 -> 75 ;
76 [label="X[2] <= 9.84\ngini = 0.444\nsamples = 9\nvalue = [6, 3]"] ;
75 -> 76 ;
77 [label="X[2] <= 9.706\ngini = 0.375\nsamples = 8\nvalue = [6, 2]"] ;
76 -> 77 ;
78 [label="X[2] <= 9.1\ngini = 0.48\nsamples = 5\nvalue = [3, 2]"] ;
77 -> 78 ;
79 [label="gini = 0.0\nsamples = 1\nvalue = [1, 0]"] ;
78 -> 79 ;
80 [label="X[2] <= 9.413\ngini = 0.5\nsamples = 4\nvalue = [2, 2]"] ;
78 -> 80 ;
81 [label="gini = 0.0\nsamples = 1\nvalue = [0, 1]"] ;
80 -> 81 ;
82 [label="X[2] <= 9.531\ngini = 0.444\nsamples = 3\nvalue = [2, 1]"] ;
80 -> 82 ;
83 [label="gini = 0.0\nsamples = 1\nvalue = [1, 0]"] ;
82 -> 83 ;
84 [label="gini = 0.5\nsamples = 2\nvalue = [1, 1]"] ;
82 -> 84 ;
85 [label="gini = 0.0\nsamples = 3\nvalue = [3, 0]"] ;
77 -> 85 ;
86 [label="gini = 0.0\nsamples = 1\nvalue = [0, 1]"] ;
76 -> 86 ;
87 [label="gini = 0.0\nsamples = 3\nvalue = [3, 0]"] ;
75 -> 87 ;
88 [label="X[2] <= 17.6\ngini = 0.473\nsamples = 26\nvalue = [10, 16]"] ;
54 -> 88 ;
89 [label="X[2] <= 13.438\ngini = 0.305\nsamples = 16\nvalue = [3, 13]"] ;
88 -> 89 ;
90 [label="gini = 0.0\nsamples = 6\nvalue = [0, 6]"] ;
89 -> 90 ;
91 [label="X[2] <= 15.175\ngini = 0.42\nsamples = 10\nvalue = [3, 7]"] ;
89 -> 91 ;
92 [label="gini = 0.0\nsamples = 2\nvalue = [2, 0]"] ;
91 -> 92 ;
93 [label="X[2] <= 16.4\ngini = 0.219\nsamples = 8\nvalue = [1, 7]"] ;
91 -> 93 ;
94 [label="X[2] <= 15.975\ngini = 0.32\nsamples = 5\nvalue = [1, 4]"] ;
93 -> 94 ;
95 [label="gini = 0.0\nsamples = 2\nvalue = [0, 2]"] ;
94 -> 95 ;
96 [label="gini = 0.444\nsamples = 3\nvalue = [1, 2]"] ;
94 -> 96 ;
97 [label="gini = 0.0\nsamples = 3\nvalue = [0, 3]"] ;
93 -> 97 ;
98 [label="X[2] <= 20.231\ngini = 0.42\nsamples = 10\nvalue = [7, 3]"] ;
88 -> 98 ;
99 [label="gini = 0.0\nsamples = 4\nvalue = [4, 0]"] ;
98 -> 99 ;
100 [label="X[2] <= 20.8\ngini = 0.5\nsamples = 6\nvalue = [3, 3]"] ;
98 -> 100 ;
101 [label="gini = 0.0\nsamples = 2\nvalue = [0, 2]"] ;
100 -> 101 ;
102 [label="X[2] <= 21.55\ngini = 0.375\nsamples = 4\nvalue = [3, 1]"] ;
100 -> 102 ;
103 [label="gini = 0.0\nsamples = 3\nvalue = [3, 0]"] ;
102 -> 103 ;
104 [label="gini = 0.0\nsamples = 1\nvalue = [0, 1]"] ;
102 -> 104 ;
105 [label="X[3] <= 1.5\ngini = 0.198\nsamples = 27\nvalue = [24, 3]"] ;
29 -> 105 ;
106 [label="X[2] <= 26.637\ngini = 0.5\nsamples = 2\nvalue = [1, 1]"] ;
105 -> 106 ;
107 [label="gini = 0.0\nsamples = 1\nvalue = [0, 1]"] ;
106 -> 107 ;
108 [label="gini = 0.0\nsamples = 1\nvalue = [1, 0]"] ;
106 -> 108 ;
109 [label="X[2] <= 31.331\ngini = 0.147\nsamples = 25\nvalue = [23, 2]"] ;
105 -> 109 ;
110 [label="gini = 0.0\nsamples = 14\nvalue = [14, 0]"] ;
109 -> 110 ;
111 [label="X[2] <= 32.881\ngini = 0.298\nsamples = 11\nvalue = [9, 2]"] ;
109 -> 111 ;
112 [label="gini = 0.0\nsamples = 2\nvalue = [0, 2]"] ;
111 -> 112 ;
113 [label="gini = 0.0\nsamples = 9\nvalue = [9, 0]"] ;
111 -> 113 ;
114 [label="X[2] <= 26.269\ngini = 0.306\nsamples = 577\nvalue = [468, 109]"] ;
0 -> 114 [labeldistance=2.5, labelangle=-45, headlabel="False"] ;
115 [label="X[2] <= 7.91\ngini = 0.226\nsamples = 415\nvalue = [361, 54]"] ;
114 -> 115 ;
116 [label="X[2] <= 7.865\ngini = 0.143\nsamples = 180\nvalue = [166, 14]"] ;
115 -> 116 ;
117 [label="X[2] <= 7.763\ngini = 0.167\nsamples = 141\nvalue = [128, 13]"] ;
116 -> 117 ;
118 [label="X[3] <= 0.5\ngini = 0.134\nsamples = 111\nvalue = [103, 8]"] ;
117 -> 118 ;
119 [label="X[2] <= 6.831\ngini = 0.211\nsamples = 25\nvalue = [22, 3]"] ;
118 -> 119 ;
120 [label="gini = 0.0\nsamples = 2\nvalue = [2, 0]"] ;
119 -> 120 ;
121 [label="X[2] <= 7.227\ngini = 0.227\nsamples = 23\nvalue = [20, 3]"] ;
119 -> 121 ;
122 [label="gini = 0.18\nsamples = 10\nvalue = [9, 1]"] ;
121 -> 122 ;
123 [label="gini = 0.26\nsamples = 13\nvalue = [11, 2]"] ;
121 -> 123 ;
124 [label="X[2] <= 7.746\ngini = 0.11\nsamples = 86\nvalue = [81, 5]"] ;
118 -> 124 ;
125 [label="X[2] <= 7.196\ngini = 0.086\nsamples = 67\nvalue = [64, 3]"] ;
124 -> 125 ;
126 [label="X[2] <= 7.133\ngini = 0.139\nsamples = 40\nvalue = [37, 3]"] ;
125 -> 126 ;
127 [label="X[2] <= 7.01\ngini = 0.097\nsamples = 39\nvalue = [37, 2]"] ;
126 -> 127 ;
128 [label="X[2] <= 6.962\ngini = 0.147\nsamples = 25\nvalue = [23, 2]"] ;
127 -> 128 ;
129 [label="X[0] <= 2.5\ngini = 0.083\nsamples = 23\nvalue = [22, 1]"] ;
128 -> 129 ;
130 [label="gini = 0.0\nsamples = 12\nvalue = [12, 0]"] ;
129 -> 130 ;
131 [label="X[2] <= 3.119\ngini = 0.165\nsamples = 11\nvalue = [10, 1]"] ;
129 -> 131 ;
132 [label="gini = 0.375\nsamples = 4\nvalue = [3, 1]"] ;
131 -> 132 ;
133 [label="gini = 0.0\nsamples = 7\nvalue = [7, 0]"] ;
131 -> 133 ;
134 [label="gini = 0.5\nsamples = 2\nvalue = [1, 1]"] ;
128 -> 134 ;
135 [label="gini = 0.0\nsamples = 14\nvalue = [14, 0]"] ;
127 -> 135 ;
136 [label="gini = 0.0\nsamples = 1\nvalue = [0, 1]"] ;
126 -> 136 ;
137 [label="gini = 0.0\nsamples = 27\nvalue = [27, 0]"] ;
125 -> 137 ;
138 [label="X[3] <= 1.5\ngini = 0.188\nsamples = 19\nvalue = [17, 2]"] ;
124 -> 138 ;
139 [label="gini = 0.208\nsamples = 17\nvalue = [15, 2]"] ;
138 -> 139 ;
140 [label="gini = 0.0\nsamples = 2\nvalue = [2, 0]"] ;
138 -> 140 ;
141 [label="X[2] <= 7.798\ngini = 0.278\nsamples = 30\nvalue = [25, 5]"] ;
117 -> 141 ;
142 [label="X[2] <= 7.785\ngini = 0.332\nsamples = 19\nvalue = [15, 4]"] ;
141 -> 142 ;
143 [label="gini = 0.26\nsamples = 13\nvalue = [11, 2]"] ;
142 -> 143 ;
144 [label="gini = 0.444\nsamples = 6\nvalue = [4, 2]"] ;
142 -> 144 ;
145 [label="X[2] <= 7.842\ngini = 0.165\nsamples = 11\nvalue = [10, 1]"] ;
141 -> 145 ;
146 [label="gini = 0.0\nsamples = 2\nvalue = [2, 0]"] ;
145 -> 146 ;
147 [label="gini = 0.198\nsamples = 9\nvalue = [8, 1]"] ;
145 -> 147 ;
148 [label="X[3] <= 1.0\ngini = 0.05\nsamples = 39\nvalue = [38, 1]"] ;
116 -> 148 ;
149 [label="gini = 0.32\nsamples = 5\nvalue = [4, 1]"] ;
148 -> 149 ;
150 [label="gini = 0.0\nsamples = 34\nvalue = [34, 0]"] ;
148 -> 150 ;
151 [label="X[3] <= 0.5\ngini = 0.282\nsamples = 235\nvalue = [195, 40]"] ;
115 -> 151 ;
152 [label="X[2] <= 8.59\ngini = 0.475\nsamples = 18\nvalue = [11, 7]"] ;
151 -> 152 ;
153 [label="gini = 0.0\nsamples = 1\nvalue = [0, 1]"] ;
152 -> 153 ;
154 [label="X[2] <= 15.148\ngini = 0.457\nsamples = 17\nvalue = [11, 6]"] ;
152 -> 154 ;
155 [label="X[2] <= 14.158\ngini = 0.32\nsamples = 10\nvalue = [8, 2]"] ;
154 -> 155 ;
156 [label="X[2] <= 9.977\ngini = 0.48\nsamples = 5\nvalue = [3, 2]"] ;
155 -> 156 ;
157 [label="gini = 0.0\nsamples = 2\nvalue = [2, 0]"] ;
156 -> 157 ;
158 [label="X[0] <= 2.5\ngini = 0.444\nsamples = 3\nvalue = [1, 2]"] ;
156 -> 158 ;
159 [label="X[2] <= 13.369\ngini = 0.5\nsamples = 2\nvalue = [1, 1]"] ;
158 -> 159 ;
160 [label="gini = 0.0\nsamples = 1\nvalue = [1, 0]"] ;
159 -> 160 ;
161 [label="gini = 0.0\nsamples = 1\nvalue = [0, 1]"] ;
159 -> 161 ;
162 [label="gini = 0.0\nsamples = 1\nvalue = [0, 1]"] ;
158 -> 162 ;
163 [label="gini = 0.0\nsamples = 5\nvalue = [5, 0]"] ;
155 -> 163 ;
164 [label="X[2] <= 17.265\ngini = 0.49\nsamples = 7\nvalue = [3, 4]"] ;
154 -> 164 ;
165 [label="gini = 0.0\nsamples = 3\nvalue = [0, 3]"] ;
164 -> 165 ;
166 [label="X[2] <= 20.233\ngini = 0.375\nsamples = 4\nvalue = [3, 1]"] ;
164 -> 166 ;
167 [label="gini = 0.5\nsamples = 2\nvalue = [1, 1]"] ;
166 -> 167 ;
168 [label="gini = 0.0\nsamples = 2\nvalue = [2, 0]"] ;
166 -> 168 ;
169 [label="X[2] <= 7.988\ngini = 0.258\nsamples = 217\nvalue = [184, 33]"] ;
151 -> 169 ;
170 [label="gini = 0.473\nsamples = 13\nvalue = [8, 5]"] ;
169 -> 170 ;
171 [label="X[2] <= 15.875\ngini = 0.237\nsamples = 204\nvalue = [176, 28]"] ;
169 -> 171 ;
172 [label="X[2] <= 14.75\ngini = 0.211\nsamples = 150\nvalue = [132, 18]"] ;
171 -> 172 ;
173 [label="X[2] <= 9.492\ngini = 0.223\nsamples = 141\nvalue = [123, 18]"] ;
172 -> 173 ;
174 [label="X[2] <= 8.135\ngini = 0.19\nsamples = 66\nvalue = [59, 7]"] ;
173 -> 174 ;
175 [label="X[2] <= 8.081\ngini = 0.245\nsamples = 42\nvalue = [36, 6]"] ;
174 -> 175 ;
176 [label="gini = 0.214\nsamples = 41\nvalue = [36, 5]"] ;
175 -> 176 ;
177 [label="gini = 0.0\nsamples = 1\nvalue = [0, 1]"] ;
175 -> 177 ;
178 [label="X[2] <= 8.658\ngini = 0.08\nsamples = 24\nvalue = [23, 1]"] ;
174 -> 178 ;
179 [label="gini = 0.0\nsamples = 7\nvalue = [7, 0]"] ;
178 -> 179 ;
180 [label="X[2] <= 8.831\ngini = 0.111\nsamples = 17\nvalue = [16, 1]"] ;
178 -> 180 ;
181 [label="gini = 0.18\nsamples = 10\nvalue = [9, 1]"] ;
180 -> 181 ;
182 [label="gini = 0.0\nsamples = 7\nvalue = [7, 0]"] ;
180 -> 182 ;
183 [label="X[0] <= 2.5\ngini = 0.25\nsamples = 75\nvalue = [64, 11]"] ;
173 -> 183 ;
184 [label="X[2] <= 14.25\ngini = 0.219\nsamples = 56\nvalue = [49, 7]"] ;
183 -> 184 ;
185 [label="X[2] <= 13.25\ngini = 0.194\nsamples = 55\nvalue = [49, 6]"] ;
184 -> 185 ;
186 [label="X[2] <= 12.762\ngini = 0.208\nsamples = 51\nvalue = [45, 6]"] ;
185 -> 186 ;
187 [label="X[2] <= 11.0\ngini = 0.159\nsamples = 23\nvalue = [21, 2]"] ;
186 -> 187 ;
188 [label="gini = 0.219\nsamples = 16\nvalue = [14, 2]"] ;
187 -> 188 ;
189 [label="gini = 0.0\nsamples = 7\nvalue = [7, 0]"] ;
187 -> 189 ;
190 [label="gini = 0.245\nsamples = 28\nvalue = [24, 4]"] ;
186 -> 190 ;
191 [label="gini = 0.0\nsamples = 4\nvalue = [4, 0]"] ;
185 -> 191 ;
192 [label="gini = 0.0\nsamples = 1\nvalue = [0, 1]"] ;
184 -> 192 ;
193 [label="X[2] <= 13.292\ngini = 0.332\nsamples = 19\nvalue = [15, 4]"] ;
183 -> 193 ;
194 [label="X[2] <= 10.652\ngini = 0.426\nsamples = 13\nvalue = [9, 4]"] ;
193 -> 194 ;
195 [label="X[2] <= 9.673\ngini = 0.298\nsamples = 11\nvalue = [9, 2]"] ;
194 -> 195 ;
196 [label="gini = 0.346\nsamples = 9\nvalue = [7, 2]"] ;
195 -> 196 ;
197 [label="gini = 0.0\nsamples = 2\nvalue = [2, 0]"] ;
195 -> 197 ;
198 [label="gini = 0.0\nsamples = 2\nvalue = [0, 2]"] ;
194 -> 198 ;
199 [label="gini = 0.0\nsamples = 6\nvalue = [6, 0]"] ;
193 -> 199 ;
200 [label="gini = 0.0\nsamples = 9\nvalue = [9, 0]"] ;
172 -> 200 ;
201 [label="X[2] <= 16.0\ngini = 0.302\nsamples = 54\nvalue = [44, 10]"] ;
171 -> 201 ;
202 [label="gini = 0.0\nsamples = 2\nvalue = [0, 2]"] ;
201 -> 202 ;
203 [label="X[2] <= 18.375\ngini = 0.26\nsamples = 52\nvalue = [44, 8]"] ;
201 -> 203 ;
204 [label="gini = 0.0\nsamples = 8\nvalue = [8, 0]"] ;
203 -> 204 ;
205 [label="X[2] <= 19.358\ngini = 0.298\nsamples = 44\nvalue = [36, 8]"] ;
203 -> 205 ;
206 [label="gini = 0.0\nsamples = 2\nvalue = [0, 2]"] ;
205 -> 206 ;
207 [label="X[3] <= 1.5\ngini = 0.245\nsamples = 42\nvalue = [36, 6]"] ;
205 -> 207 ;
208 [label="X[2] <= 23.7\ngini = 0.444\nsamples = 3\nvalue = [2, 1]"] ;
207 -> 208 ;
209 [label="gini = 0.0\nsamples = 1\nvalue = [0, 1]"] ;
208 -> 209 ;
210 [label="gini = 0.0\nsamples = 2\nvalue = [2, 0]"] ;
208 -> 210 ;
211 [label="X[2] <= 20.788\ngini = 0.224\nsamples = 39\nvalue = [34, 5]"] ;
207 -> 211 ;
212 [label="X[2] <= 20.387\ngini = 0.375\nsamples = 8\nvalue = [6, 2]"] ;
211 -> 212 ;
213 [label="gini = 0.0\nsamples = 4\nvalue = [4, 0]"] ;
212 -> 213 ;
214 [label="X[2] <= 20.55\ngini = 0.5\nsamples = 4\nvalue = [2, 2]"] ;
212 -> 214 ;
215 [label="gini = 0.5\nsamples = 2\nvalue = [1, 1]"] ;
214 -> 215 ;
216 [label="gini = 0.5\nsamples = 2\nvalue = [1, 1]"] ;
214 -> 216 ;
217 [label="X[2] <= 25.962\ngini = 0.175\nsamples = 31\nvalue = [28, 3]"] ;
211 -> 217 ;
218 [label="gini = 0.0\nsamples = 12\nvalue = [12, 0]"] ;
217 -> 218 ;
219 [label="X[0] <= 1.5\ngini = 0.266\nsamples = 19\nvalue = [16, 3]"] ;
217 -> 219 ;
220 [label="gini = 0.0\nsamples = 2\nvalue = [2, 0]"] ;
219 -> 220 ;
221 [label="X[2] <= 26.125\ngini = 0.291\nsamples = 17\nvalue = [14, 3]"] ;
219 -> 221 ;
222 [label="gini = 0.32\nsamples = 15\nvalue = [12, 3]"] ;
221 -> 222 ;
223 [label="gini = 0.0\nsamples = 2\nvalue = [2, 0]"] ;
221 -> 223 ;
224 [label="X[2] <= 26.469\ngini = 0.448\nsamples = 162\nvalue = [107, 55]"] ;
114 -> 224 ;
225 [label="gini = 0.0\nsamples = 4\nvalue = [0, 4]"] ;
224 -> 225 ;
226 [label="X[0] <= 1.5\ngini = 0.437\nsamples = 158\nvalue = [107, 51]"] ;
224 -> 226 ;
227 [label="X[2] <= 387.665\ngini = 0.471\nsamples = 108\nvalue = [67, 41]"] ;
226 -> 227 ;
228 [label="X[2] <= 152.506\ngini = 0.465\nsamples = 106\nvalue = [67, 39]"] ;
227 -> 228 ;
229 [label="X[2] <= 116.638\ngini = 0.478\nsamples = 99\nvalue = [60, 39]"] ;
228 -> 229 ;
230 [label="X[2] <= 30.598\ngini = 0.467\nsamples = 94\nvalue = [59, 35]"] ;
229 -> 230 ;
231 [label="X[2] <= 29.85\ngini = 0.499\nsamples = 31\nvalue = [16, 15]"] ;
230 -> 231 ;
232 [label="X[2] <= 27.135\ngini = 0.463\nsamples = 22\nvalue = [14, 8]"] ;
231 -> 232 ;
233 [label="X[3] <= 1.0\ngini = 0.5\nsamples = 14\nvalue = [7, 7]"] ;
232 -> 233 ;
234 [label="gini = 0.0\nsamples = 1\nvalue = [0, 1]"] ;
233 -> 234 ;
235 [label="gini = 0.497\nsamples = 13\nvalue = [7, 6]"] ;
233 -> 235 ;
236 [label="X[2] <= 29.1\ngini = 0.219\nsamples = 8\nvalue = [7, 1]"] ;
232 -> 236 ;
237 [label="gini = 0.0\nsamples = 5\nvalue = [5, 0]"] ;
236 -> 237 ;
238 [label="gini = 0.444\nsamples = 3\nvalue = [2, 1]"] ;
236 -> 238 ;
239 [label="X[3] <= 1.0\ngini = 0.346\nsamples = 9\nvalue = [2, 7]"] ;
231 -> 239 ;
240 [label="gini = 0.0\nsamples = 2\nvalue = [0, 2]"] ;
239 -> 240 ;
241 [label="X[2] <= 30.25\ngini = 0.408\nsamples = 7\nvalue = [2, 5]"] ;
239 -> 241 ;
242 [label="gini = 0.444\nsamples = 3\nvalue = [1, 2]"] ;
241 -> 242 ;
243 [label="gini = 0.375\nsamples = 4\nvalue = [1, 3]"] ;
241 -> 243 ;
244 [label="X[2] <= 52.277\ngini = 0.433\nsamples = 63\nvalue = [43, 20]"] ;
230 -> 244 ;
245 [label="X[2] <= 37.0\ngini = 0.302\nsamples = 27\nvalue = [22, 5]"] ;
244 -> 245 ;
246 [label="X[2] <= 35.25\ngini = 0.426\nsamples = 13\nvalue = [9, 4]"] ;
245 -> 246 ;
247 [label="X[3] <= 1.0\ngini = 0.198\nsamples = 9\nvalue = [8, 1]"] ;
246 -> 247 ;
248 [label="X[2] <= 30.848\ngini = 0.375\nsamples = 4\nvalue = [3, 1]"] ;
247 -> 248 ;
249 [label="gini = 0.0\nsamples = 2\nvalue = [2, 0]"] ;
248 -> 249 ;
250 [label="X[2] <= 32.827\ngini = 0.5\nsamples = 2\nvalue = [1, 1]"] ;
248 -> 250 ;
251 [label="gini = 0.0\nsamples = 1\nvalue = [0, 1]"] ;
250 -> 251 ;
252 [label="gini = 0.0\nsamples = 1\nvalue = [1, 0]"] ;
250 -> 252 ;
253 [label="gini = 0.0\nsamples = 5\nvalue = [5, 0]"] ;
247 -> 253 ;
254 [label="X[3] <= 1.0\ngini = 0.375\nsamples = 4\nvalue = [1, 3]"] ;
246 -> 254 ;
255 [label="gini = 0.0\nsamples = 1\nvalue = [0, 1]"] ;
254 -> 255 ;
256 [label="gini = 0.444\nsamples = 3\nvalue = [1, 2]"] ;
254 -> 256 ;
257 [label="X[2] <= 51.931\ngini = 0.133\nsamples = 14\nvalue = [13, 1]"] ;
245 -> 257 ;
258 [label="gini = 0.0\nsamples = 9\nvalue = [9, 0]"] ;
257 -> 258 ;
259 [label="gini = 0.32\nsamples = 5\nvalue = [4, 1]"] ;
257 -> 259 ;
260 [label="X[2] <= 59.087\ngini = 0.486\nsamples = 36\nvalue = [21, 15]"] ;
244 -> 260 ;
261 [label="X[2] <= 52.827\ngini = 0.444\nsamples = 9\nvalue = [3, 6]"] ;
260 -> 261 ;
262 [label="gini = 0.0\nsamples = 2\nvalue = [0, 2]"] ;
261 -> 262 ;
263 [label="X[2] <= 56.415\ngini = 0.49\nsamples = 7\nvalue = [3, 4]"] ;
261 -> 263 ;
264 [label="X[3] <= 1.0\ngini = 0.48\nsamples = 5\nvalue = [3, 2]"] ;
263 -> 264 ;
265 [label="gini = 0.0\nsamples = 1\nvalue = [0, 1]"] ;
264 -> 265 ;
266 [label="X[2] <= 54.5\ngini = 0.375\nsamples = 4\nvalue = [3, 1]"] ;
264 -> 266 ;
267 [label="gini = 0.444\nsamples = 3\nvalue = [2, 1]"] ;
266 -> 267 ;
268 [label="gini = 0.0\nsamples = 1\nvalue = [1, 0]"] ;
266 -> 268 ;
269 [label="gini = 0.0\nsamples = 2\nvalue = [0, 2]"] ;
263 -> 269 ;
270 [label="X[3] <= 0.5\ngini = 0.444\nsamples = 27\nvalue = [18, 9]"] ;
260 -> 270 ;
271 [label="X[2] <= 62.669\ngini = 0.492\nsamples = 16\nvalue = [9, 7]"] ;
270 -> 271 ;
272 [label="gini = 0.0\nsamples = 2\nvalue = [2, 0]"] ;
271 -> 272 ;
273 [label="X[2] <= 77.965\ngini = 0.5\nsamples = 14\nvalue = [7, 7]"] ;
271 -> 273 ;
274 [label="gini = 0.0\nsamples = 3\nvalue = [0, 3]"] ;
273 -> 274 ;
275 [label="X[2] <= 98.752\ngini = 0.463\nsamples = 11\nvalue = [7, 4]"] ;
273 -> 275 ;
276 [label="X[2] <= 85.638\ngini = 0.5\nsamples = 6\nvalue = [3, 3]"] ;
275 -> 276 ;
277 [label="X[2] <= 80.685\ngini = 0.375\nsamples = 4\nvalue = [3, 1]"] ;
276 -> 277 ;
278 [label="gini = 0.444\nsamples = 3\nvalue = [2, 1]"] ;
277 -> 278 ;
279 [label="gini = 0.0\nsamples = 1\nvalue = [1, 0]"] ;
277 -> 279 ;
280 [label="gini = 0.0\nsamples = 2\nvalue = [0, 2]"] ;
276 -> 280 ;
281 [label="X[2] <= 109.892\ngini = 0.32\nsamples = 5\nvalue = [4, 1]"] ;
275 -> 281 ;
282 [label="gini = 0.0\nsamples = 2\nvalue = [2, 0]"] ;
281 -> 282 ;
283 [label="X[2] <= 112.079\ngini = 0.444\nsamples = 3\nvalue = [2, 1]"] ;
281 -> 283 ;
284 [label="gini = 0.5\nsamples = 2\nvalue = [1, 1]"] ;
283 -> 284 ;
285 [label="gini = 0.0\nsamples = 1\nvalue = [1, 0]"] ;
283 -> 285 ;
286 [label="X[2] <= 80.754\ngini = 0.298\nsamples = 11\nvalue = [9, 2]"] ;
270 -> 286 ;
287 [label="gini = 0.0\nsamples = 7\nvalue = [7, 0]"] ;
286 -> 287 ;
288 [label="X[2] <= 82.667\ngini = 0.5\nsamples = 4\nvalue = [2, 2]"] ;
286 -> 288 ;
289 [label="gini = 0.0\nsamples = 1\nvalue = [0, 1]"] ;
288 -> 289 ;
290 [label="X[2] <= 86.737\ngini = 0.444\nsamples = 3\nvalue = [2, 1]"] ;
288 -> 290 ;
291 [label="gini = 0.0\nsamples = 1\nvalue = [1, 0]"] ;
290 -> 291 ;
292 [label="X[3] <= 1.5\ngini = 0.5\nsamples = 2\nvalue = [1, 1]"] ;
290 -> 292 ;
293 [label="gini = 0.0\nsamples = 1\nvalue = [1, 0]"] ;
292 -> 293 ;
294 [label="gini = 0.0\nsamples = 1\nvalue = [0, 1]"] ;
292 -> 294 ;
295 [label="X[3] <= 1.0\ngini = 0.32\nsamples = 5\nvalue = [1, 4]"] ;
229 -> 295 ;
296 [label="gini = 0.0\nsamples = 1\nvalue = [1, 0]"] ;
295 -> 296 ;
297 [label="gini = 0.0\nsamples = 4\nvalue = [0, 4]"] ;
295 -> 297 ;
298 [label="gini = 0.0\nsamples = 7\nvalue = [7, 0]"] ;
228 -> 298 ;
299 [label="gini = 0.0\nsamples = 2\nvalue = [0, 2]"] ;
227 -> 299 ;
300 [label="X[2] <= 63.023\ngini = 0.32\nsamples = 50\nvalue = [40, 10]"] ;
226 -> 300 ;
301 [label="X[2] <= 51.698\ngini = 0.369\nsamples = 41\nvalue = [31, 10]"] ;
300 -> 301 ;
302 [label="X[0] <= 2.5\ngini = 0.251\nsamples = 34\nvalue = [29, 5]"] ;
301 -> 302 ;
303 [label="X[2] <= 28.375\ngini = 0.426\nsamples = 13\nvalue = [9, 4]"] ;
302 -> 303 ;
304 [label="gini = 0.0\nsamples = 3\nvalue = [3, 0]"] ;
303 -> 304 ;
305 [label="X[2] <= 29.535\ngini = 0.48\nsamples = 10\nvalue = [6, 4]"] ;
303 -> 305 ;
306 [label="gini = 0.0\nsamples = 1\nvalue = [0, 1]"] ;
305 -> 306 ;
307 [label="X[2] <= 34.875\ngini = 0.444\nsamples = 9\nvalue = [6, 3]"] ;
305 -> 307 ;
308 [label="gini = 0.0\nsamples = 2\nvalue = [2, 0]"] ;
307 -> 308 ;
309 [label="X[2] <= 40.29\ngini = 0.49\nsamples = 7\nvalue = [4, 3]"] ;
307 -> 309 ;
310 [label="X[3] <= 1.0\ngini = 0.5\nsamples = 6\nvalue = [3, 3]"] ;
309 -> 310 ;
311 [label="gini = 0.5\nsamples = 2\nvalue = [1, 1]"] ;
310 -> 311 ;
312 [label="X[2] <= 37.875\ngini = 0.5\nsamples = 4\nvalue = [2, 2]"] ;
310 -> 312 ;
313 [label="gini = 0.5\nsamples = 2\nvalue = [1, 1]"] ;
312 -> 313 ;
314 [label="gini = 0.5\nsamples = 2\nvalue = [1, 1]"] ;
312 -> 314 ;
315 [label="gini = 0.0\nsamples = 1\nvalue = [1, 0]"] ;
309 -> 315 ;
316 [label="X[2] <= 32.881\ngini = 0.091\nsamples = 21\nvalue = [20, 1]"] ;
302 -> 316 ;
317 [label="X[2] <= 31.331\ngini = 0.165\nsamples = 11\nvalue = [10, 1]"] ;
316 -> 317 ;
318 [label="gini = 0.0\nsamples = 9\nvalue = [9, 0]"] ;
317 -> 318 ;
319 [label="gini = 0.5\nsamples = 2\nvalue = [1, 1]"] ;
317 -> 319 ;
320 [label="gini = 0.0\nsamples = 10\nvalue = [10, 0]"] ;
316 -> 320 ;
321 [label="gini = 0.408\nsamples = 7\nvalue = [2, 5]"] ;
301 -> 321 ;
322 [label="gini = 0.0\nsamples = 9\nvalue = [9, 0]"] ;
300 -> 322 ;
}
